[ 0.1639202   0.20408943 -0.38889544 -0.00098822]
[ 0.01463917  0.14406226  0.08722666 -0.25403693]
[-0.01179188 -0.09558614 -0.26329497  0.02321821]
[-0.10437598 -0.32981402  0.26583889 -0.47026955]
[ 0.2225139   0.21095732 -0.44492526 -0.13561881]
[-0.01658113  0.13889218  0.0290456  -0.05779095]
[0.11850734 0.00094694 0.08457096 0.12882789]
[ 0.08890296 -0.00464881 -0.01447936 -0.16017728]
[ 0.13063423  0.19224981 -0.08048545 -0.03672424]
[ 0.16540611 -0.03747352  0.02331089 -0.42629424]
[-0.19872055  0.29742333 -0.22280815 -0.07267128]
[-0.07047475 -0.01363038 -0.28661602 -0.05937517]
[-0.26973551 -0.00999951  0.13762369  0.40587688]
[-0.01593979 -0.16469133 -0.34872907  0.38386832]
[ 0.02826275  0.04251466 -0.06936367 -0.07804715]
[-6.20585113e-02 -3.68900625e-01 -2.85513027e-01  2.23892865e-04]
[-0.02026836 -0.22900969  0.13586785 -0.18178801]
[ 0.19040334  0.17280083 -0.18555754 -0.1436169 ]
[ 0.07974346 -0.12657804  0.13067473  0.22081046]
[ 0.14228727 -0.10611527  0.02051107 -0.16101811]
[-0.03332944 -0.22165557  0.14414293 -0.02983575]
[-0.09308216  0.15524793  0.03522744 -0.00227538]
[ 0.03630452 -0.12576334  0.00054668 -0.29255399]
[-0.05226998  0.30353476 -0.10764667 -0.10068842]
[ 0.06993765 -0.06360807  0.03813679  0.05343453]
[ 0.07641985 -0.02158739 -0.01420523  0.2448303 ]
[ 0.03448333  0.00994874 -0.11083314  0.08646506]
[ 0.1068644   0.20001266  0.04043242 -0.06216567]
[ 0.06482799 -0.3814591  -0.2441737  -0.2318136 ]
[-0.19503205 -0.14066481  0.17747009 -0.2064725 ]
[-0.00663431  0.24177145 -0.18023991 -0.17899353]
[-0.00759205 -0.06798677  0.18435642 -0.01067712]
[ 0.00381911  0.0278774  -0.06352665  0.06003679]
[-0.11400212 -0.13658807 -0.02544187  0.13376988]
[ 0.21809675 -0.16533592 -0.06855034 -0.11052583]
[ 0.28244597  0.06478908  0.08410147 -0.21741092]
[ 0.00187167  0.20799206 -0.2400585  -0.13389015]
[-0.31773901  0.017145   -0.13254497 -0.15797084]
[-0.24226134  0.13338005  0.05416246  0.26877236]
[-0.02671096 -0.16612472 -0.42012061  0.07927702]
[ 0.12689073  0.40587329 -0.30988117  0.11889431]
[ 0.0245066  -0.30756137 -0.21020598  0.07861771]
[ 0.00130615 -0.26598045  0.27229048 -0.21081171]
[ 0.25234096 -0.00120744 -0.12296049 -0.05236752]
[-0.05117979 -0.18103342 -0.0791892   0.06051437]
[-0.04702429 -0.08405063  0.04454965 -0.20412512]
[ 0.16646036 -0.01939618 -0.06396604 -0.00993249]
[-0.00820902 -0.03757088  0.06479245 -0.005665  ]
[ 0.16380003 -0.04909486  0.10671456 -0.19416108]
[ 0.06592088  0.09675786 -0.04854377  0.20712501]
[-0.01662722  0.18590287 -0.00994908 -0.04148288]
[-0.14964257 -0.26348764  0.08732436  0.23097884]
[-0.08797362 -0.39833053 -0.29521033  0.13598502]
[-0.01210349  0.34846978 -0.30063119  0.0327647 ]
[-0.09318112 -0.41233295 -0.21220991 -0.14292808]
[ 0.0199055  -0.11357724  0.2849349  -0.12046764]
[ 0.1477707   0.0906602  -0.10934284 -0.40982708]
[ 0.23285533 -0.21536447 -0.09241876 -0.02798194]
[-0.0474981   0.16252421  0.02701901 -0.04136615]
[ 0.02668567 -0.1299031  -0.04560287 -0.01228935]
[0.02524963 0.11520374 0.03492575 0.06603521]
[ 0.19739647 -0.21776273 -0.07802966 -0.17561436]
[-0.30168435  0.053657    0.01453994 -0.03342015]
[-0.13638113  0.11974305 -0.18675213  0.16459682]
[ 0.2496922  -0.15236673 -0.02007524  0.28162476]
[-0.23400631 -0.39223392 -0.20505186 -0.07291576]
[ 0.07864459  0.30794818 -0.33560416 -0.13090078]
[-0.09147489 -0.23420761  0.11733944 -0.17001746]
[-0.01007978 -0.10475994  0.28233605  0.11379902]
[-0.09108638  0.02831855 -0.09479968 -0.08021283]
[-0.01268495 -0.18998438 -0.00192574  0.03454124]
[-0.01864928 -0.07737519 -0.1532344   0.0824465 ]
[-0.06236422 -0.10488153  0.01720099 -0.00870729]
[ 0.16219848 -0.09793998 -0.1221963   0.12621842]
[ 0.05614155 -0.20051215  0.0600159  -0.08986857]
[-0.03335584  0.13449967  0.06873456  0.08796596]
[-0.26437626  0.01460606 -0.07508814  0.05968545]
[ 0.00292933 -0.04793149  0.06776515  0.17272494]
[-0.01648803  0.04789182 -0.28111576  0.17146315]
[-0.01574764  0.10509002  0.05588281 -0.08554664]
[ 0.002578   -0.22284912 -0.14901219 -0.09062431]
[-0.08092575 -0.26308756  0.28062678  0.01894976]
[-0.24099693 -0.04444791 -0.08275764 -0.155981  ]
[-0.08153364 -0.02881004 -0.0540677  -0.04918557]
[-0.01147761 -0.00631467  0.19845205 -0.09264053]
[ 0.00542242 -0.04226977  0.021472    0.1888572 ]
[-0.12104789 -0.00558046 -0.02940059 -0.06229576]
[ 0.30412487 -0.08184457  0.06025555 -0.12375085]
[-0.07614211  0.33029839 -0.08178156 -0.05581027]
[-0.09232561  0.06116314  0.0450007   0.12861279]
[-0.0379562  -0.19100524  0.18393569  0.29223194]
[-0.16678138 -0.20069414 -0.3279465  -0.01013955]
[-0.02757788  0.13852529 -0.33082815 -0.02528255]
[ 0.13068067 -0.30034125  0.01654671 -0.22194508]
[ 0.06668811 -0.19893122  0.2553378  -0.20327404]
[ 0.00789767  0.09164941 -0.06291658 -0.16021815]
[ 0.00778687 -0.02419919 -0.09145028 -0.0056324 ]
[ 0.28701113 -0.07731503  0.10740508  0.08013347]
[-0.00574626  0.09255601 -0.10065162 -0.05898772]
[ 0.09178526  0.03021221  0.04928483 -0.00069789]
[ 8.84758544e-02 -2.88283558e-01  2.18934943e-04 -1.78035409e-01]
[-0.16545847  0.05663022 -0.08512131  0.03178944]
[ 0.01558411 -0.12283127 -0.17547809  0.04545079]
[ 0.00870587 -0.42431184  0.12070121  0.06979013]
[-0.08793829 -0.1949753   0.00210389 -0.11416746]
[ 0.11559407  0.05473834 -0.15611116 -0.22545942]
[ 0.25511705 -0.25963117 -0.06753823 -0.29274333]
[-0.12149377 -0.12583456  0.19613134 -0.15049632]
[-0.12902511  0.03562493 -0.13642997  0.05839963]
[-0.03178534 -0.01084505  0.00365118 -0.09913668]
[-0.03773214 -0.07729471 -0.06572889  0.14989895]
[-0.04254015  0.07952973  0.19329018  0.05573922]
[ 0.03350105 -0.09136397  0.1099094   0.01828931]
[ 0.25401558 -0.12587186 -0.04305602 -0.00139917]
[ 0.04893078  0.24301394 -0.05119281  0.0615478 ]
[-0.23486134  0.01700238  0.10107345  0.0613712 ]
[-0.25604731  0.00212919  0.06988648 -0.06303507]
